svm_type c_svc
kernel_type rbf
gamma 0.082520707465624704
nr_class 2
total_sv 253
rho -32.810796967226494
label 0 1
nr_sv 133 120
SV
28.425277800183018 1:-0.11461644 2:-0.91656084 3:-1.1043806 4:0.63135892 5:-0.45528239 6:0.69198384 
43.90561913883321 1:-0.11461644 2:-0.91656084 3:1.0649849 4:1.5027998 5:0.84825566 6:0.69198384 
255.99999999999969 1:-0.11461644 2:0.16812655 3:-0.2366344 4:-0.6758024 5:-0.020769706 6:-0.65568658 
54.44090442306031 1:0.95257575 2:2.3375013 3:1.4988581 4:-1.1115228 5:0.41374298 6:-1.1049101 
120.46887802363743 1:0.95257575 2:0.16812655 3:-1.5382537 4:0.63135892 5:-1.3243078 6:-0.20646311 
227.38978111008063 1:0.95257575 2:2.3375013 3:-1.1043806 4:-1.5472433 5:-0.45528239 6:-1.5541335 
38.943282779840139 1:-0.11461644 2:-0.91656084 3:-1.1043806 4:-1.1115228 5:-0.88979507 6:-0.65568658 
2.9960177133837504 1:-0.11461644 2:-0.91656084 3:-0.67050751 4:1.5027998 5:-0.020769706 6:1.5904308 
233.03999567852321 1:0.95257575 2:-0.91656084 3:-0.2366344 4:0.19563848 5:-0.45528239 6:-0.65568658 
255.99999999999969 1:0.95257575 2:-0.91656084 3:-1.5382537 4:0.19563848 5:-0.88979507 6:0.24276037 
90.38933818449992 1:0.95257575 2:-0.91656084 3:1.4988581 4:1.0670794 5:0.41374298 6:1.1412073 
255.99999999999969 1:-2.2490008 2:-0.91656084 3:-1.1043806 4:-1.5472433 5:-0.88979507 6:-1.1049101 
255.99999999999969 1:0.95257575 2:0.16812655 3:-0.67050751 4:-0.6758024 5:-1.3243078 6:-0.20646311 
212.27741332359304 1:-0.11461644 2:0.16812655 3:0.63111183 4:-1.1115228 5:1.2827683 6:-1.1049101 
255.99999999999969 1:0.95257575 2:-0.91656084 3:-0.67050751 4:0.19563848 5:-1.7588204 6:0.24276037 
36.122506324553122 1:-0.11461644 2:1.2528139 3:1.4988581 4:-0.6758024 5:1.2827683 6:-1.5541335 
103.94718889675947 1:0.95257575 2:2.3375013 3:0.19723872 4:-1.5472433 5:0.84825566 6:-1.5541335 
146.87510989527414 1:-1.1818086 2:-0.91656084 3:1.0649849 4:-1.5472433 5:-0.020769706 6:-1.5541335 
171.51720053392057 1:0.95257575 2:-0.91656084 3:1.0649849 4:1.5027998 5:0.84825566 6:0.69198384 
46.963355062908008 1:0.95257575 2:0.16812655 3:1.4988581 4:1.5027998 5:0.41374298 6:1.5904308 
16.038159569989119 1:-0.11461644 2:1.2528139 3:1.0649849 4:1.5027998 5:0.84825566 6:0.69198384 
255.99999999999969 1:0.95257575 2:1.2528139 3:0.19723872 4:-0.24008196 5:0.41374298 6:0.24276037 
64.216514352263289 1:-1.1818086 2:0.16812655 3:0.63111183 4:-0.24008196 5:0.41374298 6:0.69198384 
101.8473610360313 1:-2.2490008 2:-0.91656084 3:1.0649849 4:-1.1115228 5:0.84825566 6:-0.20646311 
78.915532207177904 1:-2.2490008 2:-0.91656084 3:-0.67050751 4:-0.24008196 5:-0.020769706 6:-0.20646311 
173.4878516030499 1:0.95257575 2:-0.91656084 3:-0.67050751 4:-1.5472433 5:-1.3243078 6:-1.5541335 
255.99999999999969 1:-2.2490008 2:-0.91656084 3:-0.67050751 4:-1.1115228 5:-0.020769706 6:-1.1049101 
194.7093760382146 1:0.95257575 2:1.2528139 3:-0.67050751 4:-1.5472433 5:-1.7588204 6:-1.5541335 
121.16726310468047 1:0.95257575 2:2.3375013 3:0.63111183 4:-1.5472433 5:-0.45528239 6:-1.1049101 
62.687463609047235 1:-2.2490008 2:-0.91656084 3:1.4988581 4:1.5027998 5:1.2827683 6:0.69198384 
227.89459077668354 1:-1.1818086 2:-0.91656084 3:-1.1043806 4:0.63135892 5:-1.3243078 6:-0.20646311 
36.394647594058675 1:-2.2490008 2:-0.91656084 3:0.19723872 4:-1.5472433 5:-0.88979507 6:-1.5541335 
255.99999999999969 1:0.95257575 2:1.2528139 3:-0.67050751 4:1.0670794 5:-1.7588204 6:1.1412073 
155.5897154025308 1:-0.11461644 2:-0.91656084 3:-1.5382537 4:0.19563848 5:-1.7588204 6:-0.65568658 
20.846781377708776 1:0.95257575 2:-0.91656084 3:1.0649849 4:-0.6758024 5:0.41374298 6:-1.5541335 
220.36093591364374 1:0.95257575 2:2.3375013 3:1.4988581 4:-0.6758024 5:0.41374298 6:-0.65568658 
255.99999999999969 1:-1.1818086 2:-0.91656084 3:1.4988581 4:1.0670794 5:0.41374298 6:1.1412073 
255.99999999999969 1:0.95257575 2:0.16812655 3:0.19723872 4:-1.5472433 5:0.41374298 6:-1.5541335 
255.99999999999969 1:0.95257575 2:1.2528139 3:0.63111183 4:1.0670794 5:1.2827683 6:1.1412073 
31.151465260689942 1:-0.11461644 2:-0.91656084 3:0.63111183 4:-0.24008196 5:-0.45528239 6:-0.20646311 
16.813962068069507 1:0.95257575 2:1.2528139 3:0.63111183 4:1.0670794 5:-0.45528239 6:1.1412073 
255.99999999999969 1:0.95257575 2:-0.91656084 3:-0.67050751 4:0.63135892 5:-0.88979507 6:1.5904308 
255.99999999999969 1:0.95257575 2:0.16812655 3:-0.67050751 4:1.0670794 5:-0.020769706 6:1.1412073 
182.84855525002826 1:0.95257575 2:2.3375013 3:1.4988581 4:0.19563848 5:1.2827683 6:1.1412073 
221.74388689470018 1:0.95257575 2:1.2528139 3:-1.5382537 4:1.5027998 5:-0.88979507 6:1.5904308 
255.99999999999969 1:-2.2490008 2:-0.91656084 3:0.63111183 4:0.19563848 5:1.2827683 6:0.24276037 
149.50822820986926 1:0.95257575 2:0.16812655 3:1.0649849 4:0.63135892 5:0.84825566 6:-0.20646311 
255.99999999999969 1:-1.1818086 2:0.16812655 3:1.0649849 4:-0.24008196 5:0.84825566 6:-1.1049101 
255.99999999999969 1:0.95257575 2:-0.91656084 3:-0.2366344 4:-1.1115228 5:-0.45528239 6:-0.65568658 
255.99999999999969 1:-0.11461644 2:-0.91656084 3:-0.67050751 4:-1.1115228 5:-1.3243078 6:-0.65568658 
255.99999999999969 1:-0.11461644 2:1.2528139 3:-0.2366344 4:-0.24008196 5:-0.020769706 6:-0.65568658 
197.63670558640442 1:0.95257575 2:-0.91656084 3:0.63111183 4:0.19563848 5:0.41374298 6:1.1412073 
71.552458360237893 1:0.95257575 2:2.3375013 3:1.4988581 4:0.19563848 5:1.2827683 6:-0.65568658 
255.99999999999969 1:0.95257575 2:2.3375013 3:-0.2366344 4:-0.6758024 5:-0.45528239 6:-1.1049101 
255.99999999999969 1:0.95257575 2:1.2528139 3:0.19723872 4:-1.1115228 5:0.41374298 6:-1.1049101 
36.097552653846797 1:0.95257575 2:2.3375013 3:0.63111183 4:-0.6758024 5:0.84825566 6:-1.5541335 
255.99999999999969 1:-0.11461644 2:0.16812655 3:-0.2366344 4:-0.6758024 5:-0.020769706 6:-1.1049101 
129.58420556041307 1:0.95257575 2:1.2528139 3:-0.2366344 4:-1.1115228 5:-0.020769706 6:-1.5541335 
255.99999999999969 1:-0.11461644 2:-0.91656084 3:-0.67050751 4:0.19563848 5:-1.7588204 6:0.24276037 
255.99999999999969 1:-1.1818086 2:-0.91656084 3:0.63111183 4:-0.6758024 5:0.41374298 6:-1.5541335 
32.478203281627735 1:-1.1818086 2:-0.91656084 3:0.19723872 4:1.0670794 5:-0.88979507 6:1.1412073 
100.64094297965451 1:-0.11461644 2:1.2528139 3:1.4988581 4:-1.5472433 5:1.2827683 6:-0.65568658 
34.491459022021246 1:0.95257575 2:0.16812655 3:1.4988581 4:-1.1115228 5:1.2827683 6:-0.20646311 
212.46724080344157 1:0.95257575 2:0.16812655 3:-0.2366344 4:1.5027998 5:-0.45528239 6:0.69198384 
255.99999999999969 1:-0.11461644 2:0.16812655 3:-1.1043806 4:-0.6758024 5:-1.3243078 6:-0.20646311 
43.629692433874496 1:-0.11461644 2:1.2528139 3:0.63111183 4:-1.1115228 5:0.41374298 6:-0.20646311 
255.99999999999969 1:0.95257575 2:1.2528139 3:0.19723872 4:-0.6758024 5:0.41374298 6:-1.1049101 
96.641355960469326 1:0.95257575 2:1.2528139 3:-0.67050751 4:0.63135892 5:-1.7588204 6:0.69198384 
1.6361574632511984 1:-2.2490008 2:-0.91656084 3:0.63111183 4:1.5027998 5:1.2827683 6:1.1412073 
58.270388185653495 1:-0.11461644 2:0.16812655 3:-0.2366344 4:0.63135892 5:-1.3243078 6:0.69198384 
39.620302547297968 1:0.95257575 2:-0.91656084 3:-0.2366344 4:0.63135892 5:-0.45528239 6:1.5904308 
25.557432643374984 1:-0.11461644 2:0.16812655 3:-0.2366344 4:1.5027998 5:-1.3243078 6:1.5904308 
133.75967802021157 1:0.95257575 2:1.2528139 3:-1.5382537 4:-0.6758024 5:-1.7588204 6:-1.5541335 
107.53655145765798 1:-1.1818086 2:-0.91656084 3:-0.67050751 4:-0.6758024 5:-1.7588204 6:-0.65568658 
234.59145284520807 1:0.95257575 2:2.3375013 3:0.19723872 4:-0.6758024 5:0.41374298 6:-0.20646311 
30.723193474330166 1:-0.11461644 2:0.16812655 3:1.4988581 4:-1.5472433 5:0.41374298 6:-1.5541335 
255.99999999999969 1:-0.11461644 2:1.2528139 3:1.0649849 4:-1.5472433 5:-0.020769706 6:-1.5541335 
6.4707674763574889 1:0.95257575 2:2.3375013 3:1.4988581 4:-0.24008196 5:1.2827683 6:-1.1049101 
179.32479762214612 1:0.95257575 2:-0.91656084 3:-0.2366344 4:1.5027998 5:-1.3243078 6:1.5904308 
176.02955479279453 1:-1.1818086 2:-0.91656084 3:0.63111183 4:1.5027998 5:1.2827683 6:1.5904308 
204.32066631217876 1:-2.2490008 2:-0.91656084 3:0.19723872 4:-0.6758024 5:-0.020769706 6:0.24276037 
252.22256961815916 1:0.95257575 2:0.16812655 3:-0.67050751 4:-0.6758024 5:-0.45528239 6:-0.20646311 
255.99999999999969 1:-0.11461644 2:-0.91656084 3:1.4988581 4:-1.1115228 5:0.41374298 6:-1.1049101 
152.75324809901616 1:0.95257575 2:1.2528139 3:0.63111183 4:0.63135892 5:0.41374298 6:1.5904308 
53.714769666799867 1:0.95257575 2:0.16812655 3:1.0649849 4:-1.5472433 5:0.84825566 6:-0.65568658 
255.99999999999969 1:-0.11461644 2:1.2528139 3:1.0649849 4:-1.1115228 5:-0.020769706 6:-1.1049101 
46.945102617351964 1:-2.2490008 2:-0.91656084 3:1.0649849 4:-0.24008196 5:0.84825566 6:-1.1049101 
151.46934753011749 1:-2.2490008 2:-0.91656084 3:1.4988581 4:0.63135892 5:1.2827683 6:1.5904308 
130.94811110608558 1:0.95257575 2:1.2528139 3:1.0649849 4:0.63135892 5:-0.020769706 6:0.69198384 
153.07270966771375 1:-0.11461644 2:0.16812655 3:0.63111183 4:0.63135892 5:1.2827683 6:0.69198384 
213.69461505870319 1:-1.1818086 2:-0.91656084 3:1.0649849 4:-1.5472433 5:0.84825566 6:-0.65568658 
61.072694407270703 1:-1.1818086 2:-0.91656084 3:-0.67050751 4:1.5027998 5:-0.88979507 6:0.69198384 
198.4627170360595 1:0.95257575 2:2.3375013 3:0.63111183 4:1.0670794 5:0.41374298 6:0.24276037 
123.77186587198571 1:-2.2490008 2:-0.91656084 3:-0.2366344 4:0.19563848 5:0.41374298 6:0.24276037 
255.99999999999969 1:0.95257575 2:2.3375013 3:0.63111183 4:-1.5472433 5:0.41374298 6:-0.65568658 
60.291444117611242 1:-1.1818086 2:0.16812655 3:1.4988581 4:0.63135892 5:0.41374298 6:0.69198384 
158.33984159076633 1:0.95257575 2:-0.91656084 3:1.0649849 4:-0.6758024 5:0.84825566 6:0.24276037 
255.99999999999969 1:0.95257575 2:1.2528139 3:1.4988581 4:-1.1115228 5:0.41374298 6:-1.1049101 
82.004018493467797 1:-1.1818086 2:-0.91656084 3:1.0649849 4:1.5027998 5:0.84825566 6:0.69198384 
123.20128694505699 1:0.95257575 2:1.2528139 3:-1.1043806 4:-0.24008196 5:-1.3243078 6:0.69198384 
255.99999999999969 1:-1.1818086 2:0.16812655 3:0.63111183 4:-1.5472433 5:0.41374298 6:-0.65568658 
255.99999999999969 1:0.95257575 2:1.2528139 3:-0.2366344 4:1.5027998 5:-0.45528239 6:0.69198384 
9.5306735160237892 1:-0.11461644 2:1.2528139 3:-1.1043806 4:-1.1115228 5:-0.88979507 6:-1.5541335 
255.99999999999969 1:0.95257575 2:2.3375013 3:0.19723872 4:0.19563848 5:0.41374298 6:0.69198384 
251.54201856141154 1:-0.11461644 2:0.16812655 3:-1.1043806 4:0.19563848 5:-1.3243078 6:1.1412073 
232.22620884356618 1:0.95257575 2:1.2528139 3:1.4988581 4:-0.24008196 5:0.41374298 6:-0.20646311 
255.99999999999969 1:-0.11461644 2:0.16812655 3:-0.67050751 4:-0.6758024 5:-0.88979507 6:-0.20646311 
255.99999999999969 1:0.95257575 2:2.3375013 3:-0.67050751 4:-0.6758024 5:-1.3243078 6:-1.1049101 
255.99999999999969 1:0.95257575 2:-0.91656084 3:0.19723872 4:1.0670794 5:0.84825566 6:1.1412073 
95.058478691094408 1:-0.11461644 2:0.16812655 3:-1.5382537 4:1.5027998 5:-1.7588204 6:0.69198384 
22.285291928512432 1:-0.11461644 2:-0.91656084 3:0.63111183 4:-0.24008196 5:0.41374298 6:-1.1049101 
206.56310175915667 1:-0.11461644 2:1.2528139 3:1.0649849 4:0.19563848 5:-0.020769706 6:0.24276037 
13.592803348681652 1:-1.1818086 2:-0.91656084 3:1.0649849 4:-0.6758024 5:-0.020769706 6:-0.65568658 
255.99999999999969 1:0.95257575 2:-0.91656084 3:-0.67050751 4:-1.1115228 5:-0.88979507 6:-0.65568658 
158.72270311109864 1:-2.2490008 2:-0.91656084 3:1.0649849 4:0.63135892 5:0.84825566 6:-0.20646311 
35.15026994207782 1:-1.1818086 2:0.16812655 3:1.0649849 4:-1.1115228 5:0.84825566 6:-0.20646311 
93.078645772629542 1:0.95257575 2:2.3375013 3:1.4988581 4:-1.1115228 5:1.2827683 6:-0.20646311 
244.60744123558709 1:-1.1818086 2:-0.91656084 3:-1.1043806 4:0.63135892 5:-0.45528239 6:0.69198384 
155.2823051764943 1:-1.1818086 2:-0.91656084 3:1.0649849 4:-0.6758024 5:0.84825566 6:-1.5541335 
255.99999999999969 1:-1.1818086 2:0.16812655 3:-0.67050751 4:-1.1115228 5:-0.45528239 6:-0.65568658 
255.99999999999969 1:-0.11461644 2:0.16812655 3:-0.67050751 4:-0.6758024 5:-1.3243078 6:-0.20646311 
142.84459815776583 1:-2.2490008 2:-0.91656084 3:-0.67050751 4:-0.24008196 5:-0.88979507 6:-1.1049101 
255.99999999999969 1:0.95257575 2:1.2528139 3:-0.67050751 4:-0.24008196 5:-0.45528239 6:0.24276037 
49.164305272027413 1:-0.11461644 2:0.16812655 3:0.63111183 4:0.63135892 5:0.41374298 6:1.5904308 
47.25579320730543 1:0.95257575 2:-0.91656084 3:1.0649849 4:0.63135892 5:0.84825566 6:1.5904308 
255.99999999999969 1:-0.11461644 2:-0.91656084 3:-1.5382537 4:0.19563848 5:-1.7588204 6:1.1412073 
65.733346099997277 1:-2.2490008 2:-0.91656084 3:1.4988581 4:0.63135892 5:1.2827683 6:-0.20646311 
197.34917951572939 1:0.95257575 2:-0.91656084 3:-1.5382537 4:0.63135892 5:-0.88979507 6:0.69198384 
255.99999999999969 1:-0.11461644 2:1.2528139 3:-0.2366344 4:-0.24008196 5:-0.020769706 6:-0.20646311 
255.99999999999969 1:-0.11461644 2:-0.91656084 3:-0.67050751 4:-1.1115228 5:-0.88979507 6:-0.65568658 
255.99999999999969 1:-2.2490008 2:-0.91656084 3:0.63111183 4:-1.1115228 5:-0.45528239 6:-1.1049101 
24.60792128075455 1:0.95257575 2:-0.91656084 3:-1.5382537 4:0.63135892 5:-1.7588204 6:1.5904308 
255.99999999999969 1:0.95257575 2:0.16812655 3:-1.1043806 4:1.5027998 5:-1.3243078 6:0.69198384 
-46.234126837162542 1:-0.11461644 2:-0.91656084 3:1.4988581 4:-0.24008196 5:0.84825566 6:-0.65568658 
-255.99999999999969 1:0.95257575 2:2.3375013 3:1.0649849 4:-0.6758024 5:0.41374298 6:-0.20646311 
-162.48351248389386 1:-0.11461644 2:1.2528139 3:0.19723872 4:0.19563848 5:0.41374298 6:0.69198384 
-90.59995921425309 1:0.95257575 2:0.16812655 3:-1.5382537 4:-1.1115228 5:-1.3243078 6:-1.5541335 
-16.219298606490533 1:-0.11461644 2:0.16812655 3:-1.5382537 4:0.19563848 5:-1.3243078 6:-0.20646311 
-122.05723606593823 1:0.95257575 2:0.16812655 3:0.63111183 4:-1.5472433 5:0.84825566 6:-1.5541335 
-198.16695423444682 1:-1.1818086 2:-0.91656084 3:-0.2366344 4:-0.6758024 5:-0.020769706 6:-0.20646311 
-130.70591054548643 1:0.95257575 2:-0.91656084 3:-1.1043806 4:0.19563848 5:-0.88979507 6:-0.20646311 
-255.99999999999969 1:0.95257575 2:-0.91656084 3:-0.67050751 4:1.0670794 5:-0.45528239 6:1.5904308 
-196.4513829599486 1:-1.1818086 2:-0.91656084 3:1.4988581 4:1.0670794 5:0.84825566 6:0.69198384 
-56.112969997182759 1:0.95257575 2:2.3375013 3:-1.1043806 4:-1.1115228 5:-1.3243078 6:-1.5541335 
-255.99999999999969 1:0.95257575 2:1.2528139 3:-0.67050751 4:0.63135892 5:-1.3243078 6:0.24276037 
-255.99999999999969 1:0.95257575 2:0.16812655 3:-0.67050751 4:-0.24008196 5:-0.45528239 6:0.24276037 
-255.99999999999969 1:-2.2490008 2:-0.91656084 3:-1.1043806 4:-0.6758024 5:-0.88979507 6:-1.1049101 
-255.99999999999969 1:-1.1818086 2:0.16812655 3:-0.2366344 4:-1.1115228 5:-0.020769706 6:-0.65568658 
-38.849698242174775 1:-0.11461644 2:0.16812655 3:0.19723872 4:0.19563848 5:-0.45528239 6:-0.20646311 
-255.99999999999969 1:0.95257575 2:1.2528139 3:-0.67050751 4:1.5027998 5:-1.3243078 6:1.1412073 
-136.03166838757429 1:-1.1818086 2:-0.91656084 3:-0.2366344 4:1.5027998 5:-0.020769706 6:1.1412073 
-255.99999999999969 1:-0.11461644 2:0.16812655 3:0.19723872 4:-0.6758024 5:0.41374298 6:-1.1049101 
-153.26346229303374 1:0.95257575 2:-0.91656084 3:-0.67050751 4:-0.24008196 5:-1.3243078 6:-0.65568658 
-255.99999999999969 1:-0.11461644 2:0.16812655 3:-1.1043806 4:0.19563848 5:-0.88979507 6:-0.20646311 
-255.99999999999969 1:0.95257575 2:-0.91656084 3:-0.2366344 4:1.5027998 5:-0.88979507 6:1.1412073 
-187.10218673404373 1:-0.11461644 2:-0.91656084 3:-0.67050751 4:-0.24008196 5:-1.3243078 6:0.24276037 
-255.99999999999969 1:0.95257575 2:2.3375013 3:1.4988581 4:-1.1115228 5:0.84825566 6:-0.65568658 
-255.99999999999969 1:0.95257575 2:0.16812655 3:-0.67050751 4:0.19563848 5:-0.45528239 6:-0.20646311 
-212.01056641108016 1:0.95257575 2:1.2528139 3:-0.67050751 4:1.0670794 5:-0.45528239 6:1.5904308 
-255.99999999999969 1:-0.11461644 2:0.16812655 3:0.63111183 4:-1.1115228 5:-0.020769706 6:-1.5541335 
-232.11599821040662 1:-0.11461644 2:1.2528139 3:0.63111183 4:-0.24008196 5:-0.020769706 6:-0.65568658 
-255.99999999999969 1:0.95257575 2:2.3375013 3:0.19723872 4:-1.5472433 5:0.41374298 6:-1.1049101 
-255.99999999999969 1:0.95257575 2:1.2528139 3:0.63111183 4:-1.1115228 5:0.84825566 6:-0.65568658 
-255.99999999999969 1:0.95257575 2:1.2528139 3:1.0649849 4:-1.1115228 5:0.41374298 6:-0.65568658 
-146.42143857475455 1:0.95257575 2:1.2528139 3:1.0649849 4:-0.6758024 5:0.41374298 6:-0.20646311 
-99.340489804806495 1:0.95257575 2:0.16812655 3:1.4988581 4:0.63135892 5:0.84825566 6:1.1412073 
-170.06991634374603 1:-1.1818086 2:-0.91656084 3:-0.2366344 4:-1.5472433 5:-0.45528239 6:-1.1049101 
-255.58599329079445 1:-0.11461644 2:1.2528139 3:0.63111183 4:-0.6758024 5:-0.020769706 6:-0.20646311 
-255.99999999999969 1:-1.1818086 2:0.16812655 3:1.4988581 4:-0.24008196 5:0.84825566 6:-0.65568658 
-255.99999999999969 1:0.95257575 2:0.16812655 3:0.63111183 4:-0.6758024 5:0.84825566 6:-1.1049101 
-255.99999999999969 1:0.95257575 2:2.3375013 3:1.0649849 4:-0.6758024 5:0.41374298 6:-1.1049101 
-125.16990358718935 1:-1.1818086 2:-0.91656084 3:1.0649849 4:-1.5472433 5:0.41374298 6:-1.1049101 
-98.164270188831878 1:0.95257575 2:0.16812655 3:-0.67050751 4:-0.24008196 5:-1.3243078 6:-0.65568658 
-255.99999999999969 1:-0.11461644 2:1.2528139 3:0.19723872 4:-0.6758024 5:0.41374298 6:-0.20646311 
-22.231420263612947 1:-1.1818086 2:-0.91656084 3:-1.5382537 4:1.0670794 5:-1.3243078 6:0.69198384 
-213.75108483980657 1:-0.11461644 2:-0.91656084 3:-1.5382537 4:1.0670794 5:-1.3243078 6:0.69198384 
-255.99999999999969 1:0.95257575 2:-0.91656084 3:-1.5382537 4:0.63135892 5:-1.3243078 6:1.1412073 
-92.54800808950688 1:-1.1818086 2:0.16812655 3:1.0649849 4:1.0670794 5:1.2827683 6:1.5904308 
-255.99999999999969 1:0.95257575 2:-0.91656084 3:0.19723872 4:-0.6758024 5:-0.45528239 6:-0.20646311 
-255.99999999999969 1:0.95257575 2:-0.91656084 3:-0.2366344 4:-0.24008196 5:-0.020769706 6:0.24276037 
-247.39535933782875 1:-2.2490008 2:-0.91656084 3:0.19723872 4:0.63135892 5:0.41374298 6:0.24276037 
-92.179247338434749 1:0.95257575 2:2.3375013 3:0.19723872 4:-1.1115228 5:0.41374298 6:-1.5541335 
-41.163225197054132 1:-1.1818086 2:0.16812655 3:1.0649849 4:-1.5472433 5:1.2827683 6:-1.1049101 
-255.99999999999969 1:0.95257575 2:2.3375013 3:-0.67050751 4:-1.1115228 5:-0.45528239 6:-1.5541335 
-255.99999999999969 1:-1.1818086 2:-0.91656084 3:1.4988581 4:-1.1115228 5:0.84825566 6:-1.5541335 
-255.99999999999969 1:-2.2490008 2:-0.91656084 3:-0.2366344 4:-1.5472433 5:-0.88979507 6:-1.1049101 
-255.99999999999969 1:-0.11461644 2:-0.91656084 3:1.0649849 4:-1.5472433 5:0.41374298 6:-1.1049101 
-203.44213477849996 1:-2.2490008 2:-0.91656084 3:1.0649849 4:1.0670794 5:1.2827683 6:1.5904308 
-255.99999999999969 1:-1.1818086 2:0.16812655 3:-0.2366344 4:-1.5472433 5:-0.020769706 6:-1.1049101 
-255.99999999999969 1:0.95257575 2:2.3375013 3:-0.67050751 4:-1.1115228 5:-0.45528239 6:-1.1049101 
-71.304488507294806 1:-0.11461644 2:-0.91656084 3:0.19723872 4:-1.1115228 5:-0.020769706 6:-1.5541335 
-61.828410065223842 1:0.95257575 2:0.16812655 3:-1.1043806 4:-1.1115228 5:-1.7588204 6:-1.5541335 
-110.82133929585753 1:-1.1818086 2:-0.91656084 3:-1.5382537 4:0.63135892 5:-1.3243078 6:1.1412073 
-255.99999999999969 1:0.95257575 2:-0.91656084 3:-1.1043806 4:-1.5472433 5:-1.7588204 6:-1.1049101 
-168.98876850306783 1:-0.11461644 2:1.2528139 3:0.19723872 4:-0.6758024 5:0.41374298 6:-1.1049101 
-135.98956644069347 1:0.95257575 2:1.2528139 3:-1.5382537 4:-0.6758024 5:-1.3243078 6:-0.20646311 
-195.20766376897069 1:-2.2490008 2:-0.91656084 3:0.63111183 4:-1.1115228 5:-0.020769706 6:-1.5541335 
-192.06699240345284 1:-1.1818086 2:-0.91656084 3:-1.1043806 4:0.63135892 5:-1.7588204 6:0.24276037 
-63.58564714870527 1:0.95257575 2:2.3375013 3:0.63111183 4:0.63135892 5:0.84825566 6:1.1412073 
-75.30460955538959 1:0.95257575 2:1.2528139 3:1.4988581 4:-1.1115228 5:0.84825566 6:-1.5541335 
-255.99999999999969 1:0.95257575 2:1.2528139 3:-0.67050751 4:-1.5472433 5:-1.3243078 6:-1.1049101 
-77.013188139710039 1:-0.11461644 2:0.16812655 3:-1.1043806 4:1.0670794 5:-1.7588204 6:1.5904308 
-209.18392271607843 1:0.95257575 2:1.2528139 3:-1.5382537 4:1.5027998 5:-1.3243078 6:1.1412073 
-255.99999999999969 1:0.95257575 2:1.2528139 3:0.19723872 4:-1.5472433 5:-0.45528239 6:-1.5541335 
-160.64039256107242 1:0.95257575 2:1.2528139 3:0.19723872 4:1.5027998 5:0.41374298 6:1.1412073 
-191.17816667820131 1:-2.2490008 2:-0.91656084 3:1.0649849 4:-0.6758024 5:1.2827683 6:-0.20646311 
-255.99999999999969 1:0.95257575 2:2.3375013 3:0.19723872 4:0.63135892 5:0.41374298 6:0.24276037 
-184.54352394693038 1:-0.11461644 2:0.16812655 3:-1.1043806 4:0.19563848 5:-1.7588204 6:0.69198384 
-56.724544634033983 1:0.95257575 2:-0.91656084 3:0.63111183 4:1.0670794 5:-0.020769706 6:1.5904308 
-238.23156054545817 1:0.95257575 2:0.16812655 3:0.19723872 4:1.5027998 5:0.41374298 6:1.1412073 
-242.2023436685173 1:-2.2490008 2:-0.91656084 3:0.63111183 4:-0.24008196 5:0.84825566 6:-0.65568658 
-37.431545505188794 1:0.95257575 2:1.2528139 3:1.0649849 4:1.0670794 5:1.2827683 6:0.69198384 
-255.99999999999969 1:0.95257575 2:2.3375013 3:1.0649849 4:0.63135892 5:1.2827683 6:1.1412073 
-255.99999999999969 1:-0.11461644 2:0.16812655 3:-1.1043806 4:-0.24008196 5:-0.88979507 6:0.24276037 
-145.55393476297724 1:-1.1818086 2:0.16812655 3:0.19723872 4:-0.6758024 5:-0.45528239 6:-0.20646311 
-175.82734996693884 1:-0.11461644 2:-0.91656084 3:1.0649849 4:1.0670794 5:0.41374298 6:1.5904308 
-3.3455405110509635 1:-0.11461644 2:-0.91656084 3:-0.67050751 4:0.19563848 5:-1.3243078 6:-0.20646311 
-255.99999999999969 1:-0.11461644 2:1.2528139 3:1.4988581 4:-1.5472433 5:0.84825566 6:-1.1049101 
-255.99999999999969 1:0.95257575 2:0.16812655 3:0.19723872 4:0.19563848 5:0.41374298 6:0.69198384 
-54.020600227339671 1:-1.1818086 2:-0.91656084 3:-0.2366344 4:-0.6758024 5:-0.020769706 6:-1.1049101 
-33.523666763760076 1:0.95257575 2:-0.91656084 3:1.0649849 4:1.0670794 5:1.2827683 6:0.69198384 
-228.76193859144178 1:-1.1818086 2:-0.91656084 3:1.0649849 4:0.63135892 5:1.2827683 6:0.24276037 
-255.99999999999969 1:0.95257575 2:-0.91656084 3:-0.67050751 4:-0.6758024 5:-0.45528239 6:-0.65568658 
-68.910255319194334 1:-0.11461644 2:0.16812655 3:-1.5382537 4:-0.6758024 5:-1.7588204 6:-0.20646311 
-57.181129099679424 1:-0.11461644 2:0.16812655 3:0.19723872 4:-1.5472433 5:0.41374298 6:-1.5541335 
-119.62830550435555 1:-2.2490008 2:-0.91656084 3:1.4988581 4:-0.24008196 5:0.84825566 6:0.24276037 
-151.85361864114992 1:0.95257575 2:-0.91656084 3:1.0649849 4:-1.5472433 5:0.41374298 6:-1.1049101 
-255.99999999999969 1:0.95257575 2:-0.91656084 3:-1.1043806 4:0.63135892 5:-1.7588204 6:1.1412073 
-255.99999999999969 1:-0.11461644 2:-0.91656084 3:-0.2366344 4:-0.24008196 5:-0.88979507 6:-0.65568658 
-112.61471780827446 1:0.95257575 2:-0.91656084 3:1.4988581 4:1.5027998 5:0.84825566 6:1.1412073 
-255.99999999999969 1:0.95257575 2:1.2528139 3:1.4988581 4:0.63135892 5:0.84825566 6:0.24276037 
-170.7729976374587 1:-0.11461644 2:1.2528139 3:0.19723872 4:-1.1115228 5:-0.45528239 6:-1.5541335 
-255.99999999999969 1:0.95257575 2:1.2528139 3:-0.2366344 4:0.19563848 5:-0.88979507 6:0.69198384 
-45.592539603664903 1:-2.2490008 2:-0.91656084 3:1.4988581 4:-0.6758024 5:0.84825566 6:-1.1049101 
-111.77093831983099 1:-2.2490008 2:-0.91656084 3:1.4988581 4:1.5027998 5:0.84825566 6:1.1412073 
-154.42867977364273 1:0.95257575 2:0.16812655 3:-1.1043806 4:1.5027998 5:-1.7588204 6:1.1412073 
-66.100007066059021 1:0.95257575 2:-0.91656084 3:-1.5382537 4:-1.1115228 5:-1.3243078 6:-1.5541335 
-255.99999999999969 1:0.95257575 2:1.2528139 3:-0.2366344 4:0.63135892 5:-0.020769706 6:0.24276037 
-219.39509914563953 1:0.95257575 2:-0.91656084 3:1.0649849 4:0.63135892 5:1.2827683 6:1.1412073 
-125.12678305860452 1:-1.1818086 2:-0.91656084 3:-1.5382537 4:-0.24008196 5:-1.3243078 6:-0.65568658 
-255.99999999999969 1:-0.11461644 2:-0.91656084 3:-1.1043806 4:-0.6758024 5:-1.7588204 6:-0.20646311 
-255.99999999999969 1:-0.11461644 2:0.16812655 3:-0.67050751 4:-0.24008196 5:-1.3243078 6:0.24276037 
-181.9641031310407 1:0.95257575 2:2.3375013 3:1.0649849 4:0.19563848 5:0.41374298 6:0.69198384 
-7.0796406213922332 1:-0.11461644 2:-0.91656084 3:-0.67050751 4:-0.6758024 5:-0.45528239 6:-0.65568658 
-255.99999999999969 1:-2.2490008 2:-0.91656084 3:-0.67050751 4:-1.1115228 5:-0.45528239 6:-0.65568658 
-153.63154721583905 1:0.95257575 2:0.16812655 3:-1.1043806 4:-0.24008196 5:-0.88979507 6:0.24276037 
-139.11175674317835 1:0.95257575 2:-0.91656084 3:0.63111183 4:1.5027998 5:0.84825566 6:1.1412073 
-47.353876456320585 1:-2.2490008 2:-0.91656084 3:-0.2366344 4:-0.24008196 5:-0.020769706 6:-0.65568658 
-117.34646733891948 1:-2.2490008 2:-0.91656084 3:0.19723872 4:0.19563848 5:0.41374298 6:0.69198384 
-66.732379880130878 1:-0.11461644 2:0.16812655 3:0.63111183 4:1.5027998 5:-0.020769706 6:1.1412073 
-222.27811864710694 1:0.95257575 2:2.3375013 3:-0.67050751 4:-1.1115228 5:-1.3243078 6:-1.1049101 
-43.524257109198842 1:0.95257575 2:1.2528139 3:-1.5382537 4:-0.24008196 5:-1.3243078 6:-0.65568658 
-255.99999999999969 1:-0.11461644 2:-0.91656084 3:-0.67050751 4:-0.6758024 5:-1.3243078 6:-0.20646311 
